
\data\
ngram 1=11

\1-grams:
-0.6434526	</s>
-99	<s>
-1.120574	ஆறு
-1.120574	இரண்டு
-1.041393	எட்டு
-1.120574	ஏழு
-1.041393	ஐந்து
-1.120574	ஒன்பது
-1.120574	ஒரு
-1.120574	நான்கு
-0.8653014	மூன்று

\end\
